FANN_FLO_2.1
num_layers=3
learning_rate=0.010000
connection_rate=1.000000
network_type=0
learning_momentum=0.000000
training_algorithm=2
train_error_function=1
train_stop_function=0
cascade_output_change_fraction=0.010000
quickprop_decay=-0.000100
quickprop_mu=1.750000
rprop_increase_factor=1.200000
rprop_decrease_factor=0.500000
rprop_delta_min=0.000000
rprop_delta_max=50.000000
rprop_delta_zero=0.100000
cascade_output_stagnation_epochs=12
cascade_candidate_change_fraction=0.010000
cascade_candidate_stagnation_epochs=12
cascade_max_out_epochs=150
cascade_min_out_epochs=50
cascade_max_cand_epochs=150
cascade_min_cand_epochs=50
cascade_num_candidate_groups=2
bit_fail_limit=3.49999999999999980000e-001
cascade_candidate_limit=1.00000000000000000000e+003
cascade_weight_multiplier=4.00000000000000020000e-001
cascade_activation_functions_count=10
cascade_activation_functions=3 5 7 8 10 11 14 15 16 17 
cascade_activation_steepnesses_count=4
cascade_activation_steepnesses=2.50000000000000000000e-001 5.00000000000000000000e-001 7.50000000000000000000e-001 1.00000000000000000000e+000 
layer_sizes=4 21 3 
scale_included=0
neurons (num_inputs, activation_function, activation_steepness)=(0, 0, 0.00000000000000000000e+000) (0, 0, 0.00000000000000000000e+000) (0, 0, 0.00000000000000000000e+000) (0, 0, 0.00000000000000000000e+000) (4, 6, 1.00000000000000000000e+000) (4, 6, 1.00000000000000000000e+000) (4, 6, 1.00000000000000000000e+000) (4, 6, 1.00000000000000000000e+000) (4, 6, 1.00000000000000000000e+000) (4, 6, 1.00000000000000000000e+000) (4, 6, 1.00000000000000000000e+000) (4, 6, 1.00000000000000000000e+000) (4, 6, 1.00000000000000000000e+000) (4, 6, 1.00000000000000000000e+000) (4, 6, 1.00000000000000000000e+000) (4, 6, 1.00000000000000000000e+000) (4, 6, 1.00000000000000000000e+000) (4, 6, 1.00000000000000000000e+000) (4, 6, 1.00000000000000000000e+000) (4, 6, 1.00000000000000000000e+000) (4, 6, 1.00000000000000000000e+000) (4, 6, 1.00000000000000000000e+000) (4, 6, 1.00000000000000000000e+000) (4, 6, 1.00000000000000000000e+000) (0, 6, 1.00000000000000000000e+000) (21, 0, 1.00000000000000000000e+000) (21, 0, 1.00000000000000000000e+000) (0, 0, 1.00000000000000000000e+000) 
connections (connected_to_neuron, weight)=(0, -8.43205105501409150000e-001) (1, 2.95606335364755020000e+000) (2, 9.20311848103606440000e-001) (3, -1.64250291369286530000e+000) (0, -4.82944969590820780000e+000) (1, 5.73408247435548550000e+000) (2, 6.30928331863656180000e-002) (3, 3.40383461806208210000e-001) (0, 1.20557210739249210000e+001) (1, -4.09630993666204100000e+000) (2, 2.62509591782249530000e+000) (3, 9.52628171787838070000e-002) (0, 3.32702060493472110000e+000) (1, 5.00745766734701010000e+000) (2, 1.22647132977439250000e+000) (3, -3.36434985445879580000e-001) (0, 5.57172295328399340000e+000) (1, -1.54154651423919950000e+000) (2, 1.22892445497191210000e+000) (3, 1.80771939239348200000e+000) (0, 2.06650351400283510000e+001) (1, -2.24586466861825720000e+001) (2, -8.03055307960367240000e+000) (3, -7.77794175782246110000e-002) (0, -1.65088045206434850000e+000) (1, -2.10873078740112780000e+000) (2, -2.15642228228293070000e-001) (3, -8.37792346550247260000e-001) (0, -6.96955714654662020000e+000) (1, 1.60065649474863350000e+000) (2, 3.15346729298141120000e+000) (3, 4.24527516500087910000e+000) (0, -1.70008557939449290000e+000) (1, -5.15898853169965490000e+000) (2, -3.20850363725494910000e+000) (3, 1.56704968425921140000e+000) (0, -2.69854750801849290000e-001) (1, -1.36074499235968550000e+000) (2, -8.19713976241207010000e-001) (3, -4.45658365807464480000e-001) (0, 1.05800058320757240000e+001) (1, 6.94197307341682390000e-001) (2, -3.01584645797223490000e-001) (3, 1.97603321789132270000e+000) (0, 1.80136283781216600000e+000) (1, 7.83469646338159080000e-001) (2, 1.17277160187327880000e+000) (3, 1.25298925717894760000e+000) (0, 1.38048713260243710000e+000) (1, 2.86769987757542790000e+000) (2, 1.90745421723381630000e+000) (3, -1.17553262003011660000e+000) (0, -3.41768852286576410000e+000) (1, -1.42632539036248730000e+000) (2, 1.10972626067715120000e+000) (3, 6.10715754224938670000e+000) (0, 1.67860003223148620000e+001) (1, 2.64306531147935030000e+000) (2, 7.76913675755842360000e+000) (3, 2.32577913546968020000e-001) (0, 1.83170257237234590000e+000) (1, -8.75583217123434120000e-001) (2, 1.02949374280038080000e+000) (3, 3.36583728933803040000e+000) (0, 1.31210349210132790000e+000) (1, -1.05815812317921900000e+000) (2, -1.15212726104931210000e+000) (3, 1.12400833589130110000e+000) (0, 7.72793752015975220000e-001) (1, 4.14724816946213440000e-001) (2, -4.34895073262943410000e-001) (3, 1.96054416722730010000e+000) (0, 5.43385877206474000000e+000) (1, 7.05806707053368140000e+000) (2, -9.60630105960899040000e-001) (3, 4.74259323946617430000e+000) (0, -3.86291555733339600000e+000) (1, 3.65284350205330370000e+000) (2, -7.26115536375150360000e-001) (3, 6.06080672679132130000e-001) (4, 9.59403574132876910000e-001) (5, 3.08516416107141310000e-001) (6, 2.51551909274141510000e-001) (7, 6.51241771957326020000e-001) (8, 4.15136378511149650000e-001) (9, 1.60742041043215660000e-001) (10, 1.32029773625644680000e+000) (11, -1.24096761118876160000e-001) (12, 9.05919417651586230000e-001) (13, 1.96222069929732480000e+000) (14, -4.01494166094698790000e-001) (15, 8.78925614447044090000e-001) (16, 1.86777723400049790000e+000) (17, 6.76988903567967290000e-002) (18, 1.70726980957869420000e-001) (19, 1.08686700830665550000e-001) (20, 1.46621592408227320000e+000) (21, 9.31732929714596980000e-001) (22, -8.46249143925704440000e-002) (23, 5.33236433436027560000e-001) (24, 2.74574445519782720000e-001) (4, 1.11142334699791620000e+000) (5, 2.85297716722794360000e-001) (6, 2.71307187931132180000e-001) (7, 6.22525490986798880000e-001) (8, 4.14903077663922590000e-001) (9, 1.57557933876345120000e-001) (10, 1.13586405682029690000e+000) (11, -1.24251741999140190000e-001) (12, 8.63891461106606970000e-001) (13, 1.57445312487040940000e+000) (14, -4.30334697505723670000e-001) (15, 9.26359896770342470000e-001) (16, 1.77835838679694970000e+000) (17, 4.53417253963735000000e-001) (18, 1.48280911556374520000e-001) (19, 4.78987405287386370000e-001) (20, 1.31496244681548410000e+000) (21, 1.27170348902444910000e-002) (22, -9.37241686498559850000e-002) (23, 5.16694555221495880000e-001) (24, 3.36959308235596000000e-001) 
